<?xml version="1.0"?>
<MethodSetup Method="MLP::MLP">
  <GeneralInfo>
    <Info name="TMVA Release" value="4.2.1 [262657]"/>
    <Info name="ROOT Release" value="6.08/07 [395271]"/>
    <Info name="Creator" value="tt8888tt"/>
    <Info name="Date" value="Thu Jun  1 15:07:33 2017"/>
    <Info name="Host" value="Linux vocms029.cern.ch 2.6.32-642.15.1.el6.x86_64 #1 SMP Fri Feb 24 16:56:37 CET 2017 x86_64 x86_64 x86_64 GNU/Linux"/>
    <Info name="Dir" value="/cms/scratch/tt8888tt/isolation/src/MuonPerformance/MuonAnalyser/test/tmva"/>
    <Info name="Training events" value="2000"/>
    <Info name="TrainingTime" value="1.29679838e+03"/>
    <Info name="AnalysisType" value="Classification"/>
  </GeneralInfo>
  <Options>
    <Option name="NCycles" modified="Yes">600</Option>
    <Option name="HiddenLayers" modified="Yes">N+5</Option>
    <Option name="NeuronType" modified="Yes">tanh</Option>
    <Option name="RandomSeed" modified="No">1</Option>
    <Option name="EstimatorType" modified="No">CE</Option>
    <Option name="NeuronInputType" modified="No">sum</Option>
    <Option name="V" modified="Yes">False</Option>
    <Option name="VerbosityLevel" modified="No">Default</Option>
    <Option name="VarTransform" modified="Yes">N</Option>
    <Option name="H" modified="Yes">True</Option>
    <Option name="CreateMVAPdfs" modified="No">False</Option>
    <Option name="IgnoreNegWeightsInTraining" modified="No">False</Option>
    <Option name="TrainingMethod" modified="No">BP</Option>
    <Option name="LearningRate" modified="No">2.000000e-02</Option>
    <Option name="DecayRate" modified="No">1.000000e-02</Option>
    <Option name="TestRate" modified="Yes">5</Option>
    <Option name="EpochMonitoring" modified="No">False</Option>
    <Option name="Sampling" modified="No">1.000000e+00</Option>
    <Option name="SamplingEpoch" modified="No">1.000000e+00</Option>
    <Option name="SamplingImportance" modified="No">1.000000e+00</Option>
    <Option name="SamplingTraining" modified="No">True</Option>
    <Option name="SamplingTesting" modified="No">False</Option>
    <Option name="ResetStep" modified="No">50</Option>
    <Option name="Tau" modified="No">3.000000e+00</Option>
    <Option name="BPMode" modified="No">sequential</Option>
    <Option name="BatchSize" modified="No">-1</Option>
    <Option name="ConvergenceImprove" modified="No">1.000000e-30</Option>
    <Option name="ConvergenceTests" modified="No">-1</Option>
    <Option name="UseRegulator" modified="Yes">False</Option>
    <Option name="UpdateLimit" modified="No">10000</Option>
    <Option name="CalculateErrors" modified="No">False</Option>
    <Option name="WeightRange" modified="No">1.000000e+00</Option>
  </Options>
  <Variables NVar="12">
    <Variable VarIndex="0" Expression="muon_isGlobalMuon" Label="muon_isGlobalMuon" Title="muon_isGlobalMuon" Unit="" Internal="muon_isGlobalMuon" Type="I" Min="0.00000000e+00" Max="1.00000000e+00"/>
    <Variable VarIndex="1" Expression="muon_isPFMuon" Label="muon_isPFMuon" Title="muon_isPFMuon" Unit="" Internal="muon_isPFMuon" Type="I" Min="0.00000000e+00" Max="1.00000000e+00"/>
    <Variable VarIndex="2" Expression="muon_normalizedChi2" Label="muon_normalizedChi2" Title="muon_normalizedChi2" Unit="" Internal="muon_normalizedChi2" Type="F" Min="-9.00000000e+00" Max="2.55592383e+03"/>
    <Variable VarIndex="3" Expression="muon_chi2LocalPosition" Label="muon_chi2LocalPosition" Title="muon_chi2LocalPosition" Unit="" Internal="muon_chi2LocalPosition" Type="F" Min="0.00000000e+00" Max="4.24905090e+01"/>
    <Variable VarIndex="4" Expression="muon_trkKink" Label="muon_trkKink" Title="muon_trkKink" Unit="" Internal="muon_trkKink" Type="F" Min="0.00000000e+00" Max="9.99000000e+02"/>
    <Variable VarIndex="5" Expression="muon_segmentCompatibility" Label="muon_segmentCompatibility" Title="muon_segmentCompatibility" Unit="" Internal="muon_segmentCompatibility" Type="F" Min="0.00000000e+00" Max="1.00000000e+00"/>
    <Variable VarIndex="6" Expression="muon_numberOfValidMuonHits" Label="muon_numberOfValidMuonHits" Title="muon_numberOfValidMuonHits" Unit="" Internal="muon_numberOfValidMuonHits" Type="I" Min="-9.00000000e+00" Max="5.20000000e+01"/>
    <Variable VarIndex="7" Expression="muon_numberOfMatchedStations" Label="muon_numberOfMatchedStations" Title="muon_numberOfMatchedStations" Unit="" Internal="muon_numberOfMatchedStations" Type="I" Min="0.00000000e+00" Max="5.00000000e+00"/>
    <Variable VarIndex="8" Expression="muon_pv0pos_dxy" Label="muon_pv0pos_dxy" Title="muon_pv0pos_dxy" Unit="" Internal="muon_pv0pos_dxy" Type="F" Min="3.12640545e-08" Max="1.23298633e+00"/>
    <Variable VarIndex="9" Expression="muon_pv0pos_dz" Label="muon_pv0pos_dz" Title="muon_pv0pos_dz" Unit="" Internal="muon_pv0pos_dz" Type="F" Min="1.85389425e-07" Max="5.51179276e+01"/>
    <Variable VarIndex="10" Expression="muon_numberOfValidPixelHits" Label="muon_numberOfValidPixelHits" Title="muon_numberOfValidPixelHits" Unit="" Internal="muon_numberOfValidPixelHits" Type="I" Min="-9.00000000e+00" Max="1.80000000e+01"/>
    <Variable VarIndex="11" Expression="muon_trackerLayersWithMeasurement" Label="muon_trackerLayersWithMeasurement" Title="muon_trackerLayersWithMeasurement" Unit="" Internal="muon_trackerLayersWithMeasurement" Type="F" Min="-9.00000000e+00" Max="1.20000000e+01"/>
  </Variables>
  <Spectators NSpec="0"/>
  <Classes NClass="2">
    <Class Name="Signal" Index="0"/>
    <Class Name="Background" Index="1"/>
  </Classes>
  <Transformations NTransformations="1">
    <Transform Name="Normalize">
      <Selection>
        <Input NInputs="12">
          <Input Type="Variable" Label="muon_isGlobalMuon" Expression="muon_isGlobalMuon"/>
          <Input Type="Variable" Label="muon_isPFMuon" Expression="muon_isPFMuon"/>
          <Input Type="Variable" Label="muon_normalizedChi2" Expression="muon_normalizedChi2"/>
          <Input Type="Variable" Label="muon_chi2LocalPosition" Expression="muon_chi2LocalPosition"/>
          <Input Type="Variable" Label="muon_trkKink" Expression="muon_trkKink"/>
          <Input Type="Variable" Label="muon_segmentCompatibility" Expression="muon_segmentCompatibility"/>
          <Input Type="Variable" Label="muon_numberOfValidMuonHits" Expression="muon_numberOfValidMuonHits"/>
          <Input Type="Variable" Label="muon_numberOfMatchedStations" Expression="muon_numberOfMatchedStations"/>
          <Input Type="Variable" Label="muon_pv0pos_dxy" Expression="muon_pv0pos_dxy"/>
          <Input Type="Variable" Label="muon_pv0pos_dz" Expression="muon_pv0pos_dz"/>
          <Input Type="Variable" Label="muon_numberOfValidPixelHits" Expression="muon_numberOfValidPixelHits"/>
          <Input Type="Variable" Label="muon_trackerLayersWithMeasurement" Expression="muon_trackerLayersWithMeasurement"/>
        </Input>
        <Output NOutputs="12">
          <Output Type="Variable" Label="muon_isGlobalMuon" Expression="muon_isGlobalMuon"/>
          <Output Type="Variable" Label="muon_isPFMuon" Expression="muon_isPFMuon"/>
          <Output Type="Variable" Label="muon_normalizedChi2" Expression="muon_normalizedChi2"/>
          <Output Type="Variable" Label="muon_chi2LocalPosition" Expression="muon_chi2LocalPosition"/>
          <Output Type="Variable" Label="muon_trkKink" Expression="muon_trkKink"/>
          <Output Type="Variable" Label="muon_segmentCompatibility" Expression="muon_segmentCompatibility"/>
          <Output Type="Variable" Label="muon_numberOfValidMuonHits" Expression="muon_numberOfValidMuonHits"/>
          <Output Type="Variable" Label="muon_numberOfMatchedStations" Expression="muon_numberOfMatchedStations"/>
          <Output Type="Variable" Label="muon_pv0pos_dxy" Expression="muon_pv0pos_dxy"/>
          <Output Type="Variable" Label="muon_pv0pos_dz" Expression="muon_pv0pos_dz"/>
          <Output Type="Variable" Label="muon_numberOfValidPixelHits" Expression="muon_numberOfValidPixelHits"/>
          <Output Type="Variable" Label="muon_trackerLayersWithMeasurement" Expression="muon_trackerLayersWithMeasurement"/>
        </Output>
      </Selection>
      <Class ClassIndex="0">
        <Ranges>
          <Range Index="0" Min="0.0000000000000000e+00" Max="1.0000000000000000e+00"/>
          <Range Index="1" Min="0.0000000000000000e+00" Max="1.0000000000000000e+00"/>
          <Range Index="2" Min="-9.0000000000000000e+00" Max="2.5559238281250000e+03"/>
          <Range Index="3" Min="0.0000000000000000e+00" Max="4.2490509033203125e+01"/>
          <Range Index="4" Min="0.0000000000000000e+00" Max="9.9900000000000000e+02"/>
          <Range Index="5" Min="0.0000000000000000e+00" Max="1.0000000000000000e+00"/>
          <Range Index="6" Min="-9.0000000000000000e+00" Max="5.2000000000000000e+01"/>
          <Range Index="7" Min="0.0000000000000000e+00" Max="5.0000000000000000e+00"/>
          <Range Index="8" Min="3.1264054456414669e-08" Max="1.2329863309860229e+00"/>
          <Range Index="9" Min="1.8538942470058828e-07" Max="5.5117927551269531e+01"/>
          <Range Index="10" Min="0.0000000000000000e+00" Max="1.8000000000000000e+01"/>
          <Range Index="11" Min="4.0000000000000000e+00" Max="1.2000000000000000e+01"/>
        </Ranges>
      </Class>
      <Class ClassIndex="1">
        <Ranges>
          <Range Index="0" Min="0.0000000000000000e+00" Max="1.0000000000000000e+00"/>
          <Range Index="1" Min="0.0000000000000000e+00" Max="1.0000000000000000e+00"/>
          <Range Index="2" Min="-9.0000000000000000e+00" Max="1.2203530311584473e+01"/>
          <Range Index="3" Min="0.0000000000000000e+00" Max="2.6073667526245117e+01"/>
          <Range Index="4" Min="0.0000000000000000e+00" Max="2.7845428466796875e+02"/>
          <Range Index="5" Min="0.0000000000000000e+00" Max="1.0000000000000000e+00"/>
          <Range Index="6" Min="-9.0000000000000000e+00" Max="1.9000000000000000e+01"/>
          <Range Index="7" Min="0.0000000000000000e+00" Max="4.0000000000000000e+00"/>
          <Range Index="8" Min="1.7450591258239001e-05" Max="1.0960559844970703e+00"/>
          <Range Index="9" Min="5.5272355675697327e-03" Max="2.0306791305541992e+01"/>
          <Range Index="10" Min="-9.0000000000000000e+00" Max="1.8000000000000000e+01"/>
          <Range Index="11" Min="-9.0000000000000000e+00" Max="1.2000000000000000e+01"/>
        </Ranges>
      </Class>
      <Class ClassIndex="2">
        <Ranges>
          <Range Index="0" Min="0.0000000000000000e+00" Max="1.0000000000000000e+00"/>
          <Range Index="1" Min="0.0000000000000000e+00" Max="1.0000000000000000e+00"/>
          <Range Index="2" Min="-9.0000000000000000e+00" Max="2.5559238281250000e+03"/>
          <Range Index="3" Min="0.0000000000000000e+00" Max="4.2490509033203125e+01"/>
          <Range Index="4" Min="0.0000000000000000e+00" Max="9.9900000000000000e+02"/>
          <Range Index="5" Min="0.0000000000000000e+00" Max="1.0000000000000000e+00"/>
          <Range Index="6" Min="-9.0000000000000000e+00" Max="5.2000000000000000e+01"/>
          <Range Index="7" Min="0.0000000000000000e+00" Max="5.0000000000000000e+00"/>
          <Range Index="8" Min="3.1264054456414669e-08" Max="1.2329863309860229e+00"/>
          <Range Index="9" Min="1.8538942470058828e-07" Max="5.5117927551269531e+01"/>
          <Range Index="10" Min="-9.0000000000000000e+00" Max="1.8000000000000000e+01"/>
          <Range Index="11" Min="-9.0000000000000000e+00" Max="1.2000000000000000e+01"/>
        </Ranges>
      </Class>
    </Transform>
  </Transformations>
  <MVAPdfs/>
  <Weights>
    <Layout NLayers="3">
      <Layer Index="0" NNeurons="13">
        <Neuron NSynapses="17">
          2.2699217179047940e-02 2.3191288486500468e+00 4.4391668970983050e-01 2.1538460490138416e+00 -2.1898933285207853e+00 -1.8274975937316211e+00 -7.2525597088724447e-01 1.4006599399024944e+00 -1.1526762960929089e+00 -1.1632766885238677e+00 -2.6926970771217644e+00 -5.1003816987820239e-01 -9.0183822130194036e-01 1.6717742577611999e-01 2.6387704586013627e-01 7.9391902774455780e-01 -2.8609773548976991e-01 
        </Neuron>
        <Neuron NSynapses="17">
          1.4957340350165043e+00 1.8138964848416453e-01 1.7959349764418346e+00 -4.4944351728871584e-01 -8.3041247850806699e-01 -2.2524592057347753e-01 1.9790594900794956e-01 -1.5152816687391695e+00 -1.6894855260961458e-02 2.9327633548425180e+00 -5.8780498384746582e-01 -1.8538313187312159e+00 -5.5199934336442180e-01 8.7491829523026543e-01 -5.5265911939864744e-03 1.1742463845828827e-01 -4.5089228935820923e-02 
        </Neuron>
        <Neuron NSynapses="17">
          1.8054625414767067e-01 2.9327403592516960e-01 -1.5751147787179742e+00 1.4006889816239416e+00 -1.2435925301343005e+00 1.9428625050463368e+00 1.2827787393463226e+00 1.2229576533731366e+00 1.9531382279743328e+00 5.9257784110387735e-01 -1.6724691344363369e+00 -1.5816208255344610e+00 3.6301602492211837e-01 -4.4487673343389211e-01 -1.0462762553269904e+00 1.4630978136731423e+00 1.7061997158780031e+00 
        </Neuron>
        <Neuron NSynapses="17">
          1.1125199698443617e+00 -1.1066185448760921e+00 1.1352903288208194e+00 -2.5811615369973886e+00 -7.4270581100694633e-01 -9.1949023034831212e-01 -1.6724676824730138e+00 1.8230138524395738e+00 7.8821327068347102e-01 -2.4390738328853856e+00 -6.0250972144999615e-01 -1.4387091711418512e-01 7.0399364634469586e-01 1.2907443398698086e+00 -1.9092590804995826e+00 3.8956839047654046e-01 -1.0800968014126020e+00 
        </Neuron>
        <Neuron NSynapses="17">
          1.2682151944957047e+00 -3.3976410000868590e-01 -7.5840178352874654e-01 -5.1306291995476483e-01 -1.3847760307948639e-01 2.1039440805953844e+00 1.4816675895771241e+00 -2.3522342889014308e-01 -1.3013106928579130e+00 -2.0868215392255292e+00 1.1256663122589312e+00 7.0214934295291620e-01 8.4597501143934650e-01 1.3002524186382187e+00 9.1695124783834944e-02 -8.5912767253921463e-01 -7.4881794822596914e-01 
        </Neuron>
        <Neuron NSynapses="17">
          -8.6479929252898680e-01 1.2744386735950044e+00 -1.7711696835786084e+00 -6.8248510359841030e-01 -2.0102475035533560e+00 -1.3252403910240536e+00 -4.6441688122426428e-01 1.2945407733754435e+00 -3.1373977290380171e+00 -4.7444279309997167e-01 2.6201623708334414e+00 -1.0370754837226668e+00 -1.8158809987738800e+00 -8.9028298974192610e-01 -2.9170263746058925e-02 -3.2885125505054988e+00 -1.4069351360476152e+00 
        </Neuron>
        <Neuron NSynapses="17">
          -1.6345406026918835e-01 2.1532843298397752e+00 -7.1341019647077852e-01 2.3303082889563536e+00 -1.6554646750333954e+00 3.6967649804745822e-01 6.9389124049853826e-02 2.9019038890278720e-01 -1.6704044510748446e+00 -5.1679394477958426e-02 -7.7926993267358180e-01 1.0717479618742516e+00 -1.4567825435842041e+00 1.9164880317050843e+00 -1.4712692235762028e+00 -8.6763567166069278e-01 9.2707752561246604e-01 
        </Neuron>
        <Neuron NSynapses="17">
          -1.2285027534776960e+00 -9.3589118752589928e-01 8.2441417313482268e-01 3.2224932227835727e-02 1.5355754773112591e+00 1.2943385269889141e-01 -7.4379869368524573e-02 -4.4123850227123118e-01 1.4033955061446164e+00 -6.7121001569654881e-01 -2.4500801978240003e-01 7.2538514247827368e-01 -2.6484555747801770e+00 9.6648338429493230e-01 -6.7060516867363307e-01 3.1945696950627167e-01 1.3838532912781816e+00 
        </Neuron>
        <Neuron NSynapses="17">
          2.8744224404099796e+00 -2.9291582217733283e+00 1.1553619583374068e+00 1.4296547886174511e+00 1.4551092889258006e+00 -7.9088522163277675e-01 -1.3148392776324402e+00 1.1503207937420824e-01 -2.7516323310797315e+00 1.6963940613883204e+00 2.8645601568829711e+00 -3.4057635269402758e-01 -9.4649362174439478e-01 -7.7448654092051039e-02 7.8837731745902795e-01 2.0008916107872318e-01 1.5029364068512809e+00 
        </Neuron>
        <Neuron NSynapses="17">
          7.2399996164742397e-01 -2.0169778390098054e+00 -4.0813159034099722e-01 8.0016523791934446e-01 3.1682816097489713e-01 5.7793963841072693e-01 -1.3653246446767116e+00 1.7703606070863347e+00 1.1604218543145535e+00 2.3337551190705148e+00 5.2796123276662881e+00 6.7132840780411984e-01 -7.4750586966675059e-01 -6.1876028336452760e-01 7.9379011619809976e+00 -1.0815405987192475e+00 -4.2049462460650699e-01 
        </Neuron>
        <Neuron NSynapses="17">
          1.3506637564200752e+00 2.6037277377303267e+00 -9.6700982947113068e-01 1.2835207703535130e+00 2.1847719570279138e+00 -1.4538294256424857e+00 6.8992528710271117e-01 -9.6567812330873457e-02 -6.2436820425754513e-01 -3.4593409754987618e+00 -8.3602929894051736e-01 8.7244338821433653e-01 2.0550547246461917e+00 -1.8498889067680471e+00 -1.0924570247273759e+00 -1.0550197949509859e+00 3.1347125423049388e-01 
        </Neuron>
        <Neuron NSynapses="17">
          4.3601644354965972e+00 -2.9841253213145708e-01 -4.1967167435282482e-01 -1.2089239214911189e+00 1.2234136328880858e+00 3.8056842742475978e+00 1.3070587065848536e+00 -7.2364268794011186e-02 -1.7428164773364403e+00 -1.1813495259840701e+00 5.5213231756014547e-01 4.1571397284433209e-01 -1.7882407090332419e+00 -4.9613406685585315e-01 2.6332013385392931e-02 5.3977187618134925e-01 -2.1292418389145320e+00 
        </Neuron>
        <Neuron NSynapses="17">
          1.5908706996175972e+00 2.6463921561311160e-01 -4.1926678727433214e-01 2.4889879487683395e-01 1.6621933241393108e+00 2.3535638556927546e-01 4.1354570439093075e-01 -6.5138656585383437e-01 -2.0172317171265379e+00 -3.0097474152994658e-01 2.6386089746191757e+00 1.2851579329552758e+00 1.1754034031148202e+00 7.3186990185212508e-01 4.5082483501625168e+00 -1.7195027604100777e+00 -1.4405244438262874e+00 
        </Neuron>
      </Layer>
      <Layer Index="1" NNeurons="18">
        <Neuron NSynapses="1">
          -3.2216674319984788e+00 
        </Neuron>
        <Neuron NSynapses="1">
          -3.4309772651081425e+00 
        </Neuron>
        <Neuron NSynapses="1">
          1.3889578136154028e+00 
        </Neuron>
        <Neuron NSynapses="1">
          1.4607975722239226e+00 
        </Neuron>
        <Neuron NSynapses="1">
          -1.7250797515079757e+00 
        </Neuron>
        <Neuron NSynapses="1">
          3.7178293065548060e+00 
        </Neuron>
        <Neuron NSynapses="1">
          1.0592683183028873e+00 
        </Neuron>
        <Neuron NSynapses="1">
          -2.7587335349260305e+00 
        </Neuron>
        <Neuron NSynapses="1">
          -3.4521150659713125e+00 
        </Neuron>
        <Neuron NSynapses="1">
          4.0320006752529496e+00 
        </Neuron>
        <Neuron NSynapses="1">
          -3.2479657239192741e+00 
        </Neuron>
        <Neuron NSynapses="1">
          2.2515578646962520e+00 
        </Neuron>
        <Neuron NSynapses="1">
          -2.1536719193389491e+00 
        </Neuron>
        <Neuron NSynapses="1">
          1.3342694045018082e+00 
        </Neuron>
        <Neuron NSynapses="1">
          -4.4390219993525033e+00 
        </Neuron>
        <Neuron NSynapses="1">
          -2.2315072982287134e+00 
        </Neuron>
        <Neuron NSynapses="1">
          -7.8382284573692784e-01 
        </Neuron>
        <Neuron NSynapses="1">
          -3.1465514490621299e-01 
        </Neuron>
      </Layer>
      <Layer Index="2" NNeurons="1">
        <Neuron NSynapses="0"/>
      </Layer>
    </Layout>
  </Weights>
</MethodSetup>
